104850 100
</s> 0.003402 0.001686 -0.001527 0.002064 0.003262 -0.003663 0.003951 -0.001055 -0.003282 -0.001482 -0.000002 0.004704 0.002846 -0.002112 0.001698 0.004135 -0.003120 -0.003746 0.002167 -0.001848 0.000598 -0.002430 -0.004205 -0.004312 -0.003219 -0.003467 0.004399 0.000578 -0.004798 -0.002250 -0.000220 0.003309 -0.003455 0.000526 -0.001945 0.002834 -0.003394 0.002462 0.002712 -0.001483 -0.001458 -0.002009 -0.002070 -0.003096 -0.001259 -0.001819 -0.004541 0.003228 -0.004360 0.003458 0.004240 0.004747 0.000789 0.004763 -0.002514 -0.004304 0.002176 0.000418 0.003280 0.004331 -0.002894 0.001007 -0.001367 -0.003920 0.001220 0.003748 -0.002977 0.004757 -0.003988 0.001385 -0.000897 -0.003687 -0.002686 0.001871 0.000615 0.000004 -0.003904 0.004724 -0.004658 -0.000628 0.002793 -0.000587 0.000489 0.003613 0.004898 -0.001654 0.003364 0.001619 0.002848 0.000502 0.002449 -0.004047 -0.004445 -0.003558 0.002349 -0.000124 -0.004945 0.004128 0.002851 0.001371 
4 -0.064564 0.171658 -0.017484 -0.246385 0.073057 -0.360207 -0.005412 -0.409252 0.304642 -0.229828 -0.022973 -0.046122 0.088892 -0.062649 0.305338 -0.065063 -0.051837 0.292447 0.043459 0.336256 0.444053 0.209875 0.185240 -0.007312 0.135618 0.191460 0.085417 0.302459 -0.076204 0.170313 -0.302896 0.335454 0.079000 -0.335675 -0.067369 -0.006792 0.098370 -0.142522 -0.081008 -0.070450 -0.081998 0.239902 -0.377299 0.350285 -0.448802 -0.004144 -0.168090 0.096766 -0.042416 -0.119186 0.089955 0.240541 0.043447 -0.052926 0.109946 0.348850 -0.169826 0.138776 0.249028 0.209109 -0.242509 0.118211 0.119854 -0.231993 0.053586 -0.033349 0.291703 0.340933 0.149800 -0.039204 0.031633 -0.053112 0.151916 -0.707296 0.277193 -0.202315 -0.000334 0.087831 -0.022578 -0.009957 -0.115541 -0.002530 -0.166171 -0.257357 -0.126913 0.151991 0.179928 -0.011682 -0.216079 -0.017473 0.369563 0.267347 0.109915 -0.229750 0.067955 0.233577 0.124491 0.219159 0.294047 -0.168098 
2147483647 -0.094019 0.321883 0.098472 -0.324279 0.111737 -0.356993 0.057691 -0.449385 0.262656 -0.398160 -0.059788 -0.016943 0.174170 -0.188694 0.341179 -0.181470 0.054307 0.213725 0.102878 0.419082 0.528624 0.202549 0.183896 -0.094477 0.022673 0.121629 -0.040975 0.294981 -0.062351 0.173533 -0.318227 0.422590 -0.088339 -0.336145 -0.138316 -0.092876 0.113666 -0.304128 -0.168327 -0.063459 -0.044623 0.384750 -0.437301 0.495682 -0.482911 -0.150885 -0.090160 0.106357 0.020203 -0.048002 0.071446 0.421234 0.083998 -0.032072 0.120158 0.459473 -0.183395 0.231441 0.296182 0.223971 -0.437616 0.150636 0.032032 -0.302300 0.211085 -0.006101 0.165632 0.355297 0.325119 -0.024633 -0.008711 -0.150822 0.174648 -0.917679 0.181508 -0.160475 0.100479 0.220944 -0.058792 -0.039618 -0.325960 0.125068 -0.292959 -0.219029 -0.129211 0.096661 0.194932 0.051612 -0.217124 -0.018506 0.436279 0.363569 0.144654 -0.269945 -0.033439 0.303753 0.200227 0.252783 0.330996 -0.274449 
1 -0.229682 0.143449 0.226652 -0.248513 0.224144 -0.258908 -0.026664 -0.461396 0.262946 -0.280931 0.028613 0.023338 0.040596 -0.207341 0.362485 -0.094285 -0.099008 0.153115 0.086677 0.280950 0.386658 0.326888 0.239563 0.062315 0.035187 0.155870 0.019354 0.249527 -0.104271 0.135854 -0.360452 0.231951 0.110293 -0.329929 -0.273691 0.003188 0.000182 -0.296418 0.063941 -0.161109 0.119234 0.317329 -0.348301 0.174626 -0.498602 -0.095016 -0.143635 0.180086 -0.072905 -0.093843 0.216952 0.375152 0.020773 0.019585 0.203753 0.505755 -0.201136 0.171160 0.195145 0.264796 -0.356625 0.092254 0.151764 -0.220739 0.184621 0.012936 0.189108 0.233414 0.135086 -0.063112 -0.006054 -0.073659 0.143956 -0.936777 0.159510 -0.194925 -0.057334 0.226018 -0.091169 0.139746 -0.012320 0.048809 -0.198876 -0.120552 -0.241968 -0.045444 0.224436 0.076780 -0.194102 -0.059854 0.372837 0.325332 0.184434 -0.246207 0.189588 0.223643 0.094928 0.272330 0.426312 -0.222024 
